digraph Tree {
node [shape=box, style="filled, rounded", color="black", fontname=helvetica] ;
edge [fontname=helvetica] ;
0 [label=<protein_V8 &le; 65.5<br/>gini = 0.5<br/>samples = 253<br/>value = [124, 129]<br/>class = affected>, fillcolor="#399de50a"] ;
1 [label=<protein_V8 &le; 55.5<br/>gini = 0.499<br/>samples = 234<br/>value = [122, 112]<br/>class = not_affected>, fillcolor="#e5813915"] ;
0 -> 1 [labeldistance=2.5, labelangle=45, headlabel="True"] ;
2 [label=<age &le; 44.5<br/>gini = 0.5<br/>samples = 208<br/>value = [101, 107]<br/>class = affected>, fillcolor="#399de50e"] ;
1 -> 2 ;
3 [label=<gender &le; 0.5<br/>gini = 0.332<br/>samples = 19<br/>value = [15, 4]<br/>class = not_affected>, fillcolor="#e58139bb"] ;
2 -> 3 ;
4 [label=<protein_BL &le; 36.5<br/>gini = 0.48<br/>samples = 5<br/>value = [2, 3]<br/>class = affected>, fillcolor="#399de555"] ;
3 -> 4 ;
5 [label=<protein_V8 &le; 29.5<br/>gini = 0.444<br/>samples = 3<br/>value = [2, 1]<br/>class = not_affected>, fillcolor="#e581397f"] ;
4 -> 5 ;
6 [label=<gini = 0.0<br/>samples = 2<br/>value = [2, 0]<br/>class = not_affected>, fillcolor="#e58139ff"] ;
5 -> 6 ;
7 [label=<gini = 0.0<br/>samples = 1<br/>value = [0, 1]<br/>class = affected>, fillcolor="#399de5ff"] ;
5 -> 7 ;
8 [label=<gini = 0.0<br/>samples = 2<br/>value = [0, 2]<br/>class = affected>, fillcolor="#399de5ff"] ;
4 -> 8 ;
9 [label=<protein_V8 &le; 35.5<br/>gini = 0.133<br/>samples = 14<br/>value = [13, 1]<br/>class = not_affected>, fillcolor="#e58139eb"] ;
3 -> 9 ;
10 [label=<protein_V6 &le; 32.0<br/>gini = 0.278<br/>samples = 6<br/>value = [5, 1]<br/>class = not_affected>, fillcolor="#e58139cc"] ;
9 -> 10 ;
11 [label=<gini = 0.0<br/>samples = 5<br/>value = [5, 0]<br/>class = not_affected>, fillcolor="#e58139ff"] ;
10 -> 11 ;
12 [label=<gini = 0.0<br/>samples = 1<br/>value = [0, 1]<br/>class = affected>, fillcolor="#399de5ff"] ;
10 -> 12 ;
13 [label=<gini = 0.0<br/>samples = 8<br/>value = [8, 0]<br/>class = not_affected>, fillcolor="#e58139ff"] ;
9 -> 13 ;
14 [label=<age &le; 51.5<br/>gini = 0.496<br/>samples = 189<br/>value = [86, 103]<br/>class = affected>, fillcolor="#399de52a"] ;
2 -> 14 ;
15 [label=<age &le; 49.5<br/>gini = 0.188<br/>samples = 19<br/>value = [2, 17]<br/>class = affected>, fillcolor="#399de5e1"] ;
14 -> 15 ;
16 [label=<protein_V4 &le; 44.0<br/>gini = 0.32<br/>samples = 10<br/>value = [2, 8]<br/>class = affected>, fillcolor="#399de5bf"] ;
15 -> 16 ;
17 [label=<age &le; 48.5<br/>gini = 0.48<br/>samples = 5<br/>value = [2, 3]<br/>class = affected>, fillcolor="#399de555"] ;
16 -> 17 ;
18 [label=<protein_V8 &le; 45.0<br/>gini = 0.375<br/>samples = 4<br/>value = [1, 3]<br/>class = affected>, fillcolor="#399de5aa"] ;
17 -> 18 ;
19 [label=<gini = 0.0<br/>samples = 3<br/>value = [0, 3]<br/>class = affected>, fillcolor="#399de5ff"] ;
18 -> 19 ;
20 [label=<gini = 0.0<br/>samples = 1<br/>value = [1, 0]<br/>class = not_affected>, fillcolor="#e58139ff"] ;
18 -> 20 ;
21 [label=<gini = 0.0<br/>samples = 1<br/>value = [1, 0]<br/>class = not_affected>, fillcolor="#e58139ff"] ;
17 -> 21 ;
22 [label=<gini = 0.0<br/>samples = 5<br/>value = [0, 5]<br/>class = affected>, fillcolor="#399de5ff"] ;
16 -> 22 ;
23 [label=<gini = 0.0<br/>samples = 9<br/>value = [0, 9]<br/>class = affected>, fillcolor="#399de5ff"] ;
15 -> 23 ;
24 [label=<protein_V4 &le; 33.25<br/>gini = 0.5<br/>samples = 170<br/>value = [84, 86]<br/>class = affected>, fillcolor="#399de506"] ;
14 -> 24 ;
25 [label=<protein_BL &le; 26.5<br/>gini = 0.429<br/>samples = 45<br/>value = [14, 31]<br/>class = affected>, fillcolor="#399de58c"] ;
24 -> 25 ;
26 [label=<gender &le; 0.5<br/>gini = 0.499<br/>samples = 25<br/>value = [13, 12]<br/>class = not_affected>, fillcolor="#e5813914"] ;
25 -> 26 ;
27 [label=<protein_V4 &le; 19.5<br/>gini = 0.298<br/>samples = 11<br/>value = [2, 9]<br/>class = affected>, fillcolor="#399de5c6"] ;
26 -> 27 ;
28 [label=<gini = 0.0<br/>samples = 1<br/>value = [1, 0]<br/>class = not_affected>, fillcolor="#e58139ff"] ;
27 -> 28 ;
29 [label=<protein_V4 &le; 26.5<br/>gini = 0.18<br/>samples = 10<br/>value = [1, 9]<br/>class = affected>, fillcolor="#399de5e3"] ;
27 -> 29 ;
30 [label=<gini = 0.0<br/>samples = 9<br/>value = [0, 9]<br/>class = affected>, fillcolor="#399de5ff"] ;
29 -> 30 ;
31 [label=<gini = 0.0<br/>samples = 1<br/>value = [1, 0]<br/>class = not_affected>, fillcolor="#e58139ff"] ;
29 -> 31 ;
32 [label=<age &le; 66.5<br/>gini = 0.337<br/>samples = 14<br/>value = [11, 3]<br/>class = not_affected>, fillcolor="#e58139b9"] ;
26 -> 32 ;
33 [label=<gini = 0.0<br/>samples = 8<br/>value = [8, 0]<br/>class = not_affected>, fillcolor="#e58139ff"] ;
32 -> 33 ;
34 [label=<protein_BL &le; 24.5<br/>gini = 0.5<br/>samples = 6<br/>value = [3, 3]<br/>class = not_affected>, fillcolor="#e5813900"] ;
32 -> 34 ;
35 [label=<gini = 0.0<br/>samples = 3<br/>value = [0, 3]<br/>class = affected>, fillcolor="#399de5ff"] ;
34 -> 35 ;
36 [label=<gini = 0.0<br/>samples = 3<br/>value = [3, 0]<br/>class = not_affected>, fillcolor="#e58139ff"] ;
34 -> 36 ;
37 [label=<protein_V8 &le; 27.5<br/>gini = 0.095<br/>samples = 20<br/>value = [1, 19]<br/>class = affected>, fillcolor="#399de5f2"] ;
25 -> 37 ;
38 [label=<gini = 0.0<br/>samples = 1<br/>value = [1, 0]<br/>class = not_affected>, fillcolor="#e58139ff"] ;
37 -> 38 ;
39 [label=<gini = 0.0<br/>samples = 19<br/>value = [0, 19]<br/>class = affected>, fillcolor="#399de5ff"] ;
37 -> 39 ;
40 [label=<protein_V8 &le; 37.1<br/>gini = 0.493<br/>samples = 125<br/>value = [70, 55]<br/>class = not_affected>, fillcolor="#e5813937"] ;
24 -> 40 ;
41 [label=<protein_BL &le; 40.0<br/>gini = 0.36<br/>samples = 34<br/>value = [26, 8]<br/>class = not_affected>, fillcolor="#e58139b1"] ;
40 -> 41 ;
42 [label=<protein_V8 &le; 27.5<br/>gini = 0.271<br/>samples = 31<br/>value = [26, 5]<br/>class = not_affected>, fillcolor="#e58139ce"] ;
41 -> 42 ;
43 [label=<gini = 0.0<br/>samples = 1<br/>value = [0, 1]<br/>class = affected>, fillcolor="#399de5ff"] ;
42 -> 43 ;
44 [label=<protein_V6 &le; 28.5<br/>gini = 0.231<br/>samples = 30<br/>value = [26, 4]<br/>class = not_affected>, fillcolor="#e58139d8"] ;
42 -> 44 ;
45 [label=<gini = 0.0<br/>samples = 1<br/>value = [0, 1]<br/>class = affected>, fillcolor="#399de5ff"] ;
44 -> 45 ;
46 [label=<protein_BL &le; 35.5<br/>gini = 0.185<br/>samples = 29<br/>value = [26, 3]<br/>class = not_affected>, fillcolor="#e58139e2"] ;
44 -> 46 ;
47 [label=<protein_V6 &le; 34.5<br/>gini = 0.42<br/>samples = 10<br/>value = [7, 3]<br/>class = not_affected>, fillcolor="#e5813992"] ;
46 -> 47 ;
48 [label=<gini = 0.0<br/>samples = 7<br/>value = [7, 0]<br/>class = not_affected>, fillcolor="#e58139ff"] ;
47 -> 48 ;
49 [label=<gini = 0.0<br/>samples = 3<br/>value = [0, 3]<br/>class = affected>, fillcolor="#399de5ff"] ;
47 -> 49 ;
50 [label=<gini = 0.0<br/>samples = 19<br/>value = [19, 0]<br/>class = not_affected>, fillcolor="#e58139ff"] ;
46 -> 50 ;
51 [label=<gini = 0.0<br/>samples = 3<br/>value = [0, 3]<br/>class = affected>, fillcolor="#399de5ff"] ;
41 -> 51 ;
52 [label=<protein_BL &le; 54.2<br/>gini = 0.499<br/>samples = 91<br/>value = [44, 47]<br/>class = affected>, fillcolor="#399de510"] ;
40 -> 52 ;
53 [label=<protein_BL &le; 34.5<br/>gini = 0.486<br/>samples = 79<br/>value = [33, 46]<br/>class = affected>, fillcolor="#399de548"] ;
52 -> 53 ;
54 [label=<age &le; 70.5<br/>gini = 0.219<br/>samples = 8<br/>value = [7, 1]<br/>class = not_affected>, fillcolor="#e58139db"] ;
53 -> 54 ;
55 [label=<gini = 0.0<br/>samples = 7<br/>value = [7, 0]<br/>class = not_affected>, fillcolor="#e58139ff"] ;
54 -> 55 ;
56 [label=<gini = 0.0<br/>samples = 1<br/>value = [0, 1]<br/>class = affected>, fillcolor="#399de5ff"] ;
54 -> 56 ;
57 [label=<protein_V4 &le; 39.5<br/>gini = 0.464<br/>samples = 71<br/>value = [26, 45]<br/>class = affected>, fillcolor="#399de56c"] ;
53 -> 57 ;
58 [label=<protein_V6 &le; 240.0<br/>gini = 0.133<br/>samples = 14<br/>value = [1, 13]<br/>class = affected>, fillcolor="#399de5eb"] ;
57 -> 58 ;
59 [label=<gini = 0.0<br/>samples = 13<br/>value = [0, 13]<br/>class = affected>, fillcolor="#399de5ff"] ;
58 -> 59 ;
60 [label=<gini = 0.0<br/>samples = 1<br/>value = [1, 0]<br/>class = not_affected>, fillcolor="#e58139ff"] ;
58 -> 60 ;
61 [label=<protein_V4 &le; 44.5<br/>gini = 0.492<br/>samples = 57<br/>value = [25, 32]<br/>class = affected>, fillcolor="#399de538"] ;
57 -> 61 ;
62 [label=<protein_V6 &le; 49.5<br/>gini = 0.454<br/>samples = 23<br/>value = [15, 8]<br/>class = not_affected>, fillcolor="#e5813977"] ;
61 -> 62 ;
63 [label=<protein_V8 &le; 39.0<br/>gini = 0.375<br/>samples = 20<br/>value = [15, 5]<br/>class = not_affected>, fillcolor="#e58139aa"] ;
62 -> 63 ;
64 [label=<gini = 0.0<br/>samples = 2<br/>value = [0, 2]<br/>class = affected>, fillcolor="#399de5ff"] ;
63 -> 64 ;
65 [label=<gender &le; 0.5<br/>gini = 0.278<br/>samples = 18<br/>value = [15, 3]<br/>class = not_affected>, fillcolor="#e58139cc"] ;
63 -> 65 ;
66 [label=<age &le; 56.5<br/>gini = 0.49<br/>samples = 7<br/>value = [4, 3]<br/>class = not_affected>, fillcolor="#e5813940"] ;
65 -> 66 ;
67 [label=<gini = 0.0<br/>samples = 4<br/>value = [4, 0]<br/>class = not_affected>, fillcolor="#e58139ff"] ;
66 -> 67 ;
68 [label=<gini = 0.0<br/>samples = 3<br/>value = [0, 3]<br/>class = affected>, fillcolor="#399de5ff"] ;
66 -> 68 ;
69 [label=<gini = 0.0<br/>samples = 11<br/>value = [11, 0]<br/>class = not_affected>, fillcolor="#e58139ff"] ;
65 -> 69 ;
70 [label=<gini = 0.0<br/>samples = 3<br/>value = [0, 3]<br/>class = affected>, fillcolor="#399de5ff"] ;
62 -> 70 ;
71 [label=<age &le; 54.0<br/>gini = 0.415<br/>samples = 34<br/>value = [10, 24]<br/>class = affected>, fillcolor="#399de595"] ;
61 -> 71 ;
72 [label=<gini = 0.0<br/>samples = 2<br/>value = [2, 0]<br/>class = not_affected>, fillcolor="#e58139ff"] ;
71 -> 72 ;
73 [label=<protein_V4 &le; 47.5<br/>gini = 0.375<br/>samples = 32<br/>value = [8, 24]<br/>class = affected>, fillcolor="#399de5aa"] ;
71 -> 73 ;
74 [label=<gini = 0.0<br/>samples = 8<br/>value = [0, 8]<br/>class = affected>, fillcolor="#399de5ff"] ;
73 -> 74 ;
75 [label=<age &le; 78.5<br/>gini = 0.444<br/>samples = 24<br/>value = [8, 16]<br/>class = affected>, fillcolor="#399de57f"] ;
73 -> 75 ;
76 [label=<protein_V4 &le; 56.5<br/>gini = 0.397<br/>samples = 22<br/>value = [6, 16]<br/>class = affected>, fillcolor="#399de59f"] ;
75 -> 76 ;
77 [label=<protein_BL &le; 46.5<br/>gini = 0.48<br/>samples = 15<br/>value = [6, 9]<br/>class = affected>, fillcolor="#399de555"] ;
76 -> 77 ;
78 [label=<protein_BL &le; 43.0<br/>gini = 0.32<br/>samples = 5<br/>value = [4, 1]<br/>class = not_affected>, fillcolor="#e58139bf"] ;
77 -> 78 ;
79 [label=<gini = 0.0<br/>samples = 1<br/>value = [0, 1]<br/>class = affected>, fillcolor="#399de5ff"] ;
78 -> 79 ;
80 [label=<gini = 0.0<br/>samples = 4<br/>value = [4, 0]<br/>class = not_affected>, fillcolor="#e58139ff"] ;
78 -> 80 ;
81 [label=<protein_V4 &le; 53.5<br/>gini = 0.32<br/>samples = 10<br/>value = [2, 8]<br/>class = affected>, fillcolor="#399de5bf"] ;
77 -> 81 ;
82 [label=<gini = 0.0<br/>samples = 7<br/>value = [0, 7]<br/>class = affected>, fillcolor="#399de5ff"] ;
81 -> 82 ;
83 [label=<gender &le; 0.5<br/>gini = 0.444<br/>samples = 3<br/>value = [2, 1]<br/>class = not_affected>, fillcolor="#e581397f"] ;
81 -> 83 ;
84 [label=<gini = 0.0<br/>samples = 1<br/>value = [0, 1]<br/>class = affected>, fillcolor="#399de5ff"] ;
83 -> 84 ;
85 [label=<gini = 0.0<br/>samples = 2<br/>value = [2, 0]<br/>class = not_affected>, fillcolor="#e58139ff"] ;
83 -> 85 ;
86 [label=<gini = 0.0<br/>samples = 7<br/>value = [0, 7]<br/>class = affected>, fillcolor="#399de5ff"] ;
76 -> 86 ;
87 [label=<gini = 0.0<br/>samples = 2<br/>value = [2, 0]<br/>class = not_affected>, fillcolor="#e58139ff"] ;
75 -> 87 ;
88 [label=<age &le; 59.5<br/>gini = 0.153<br/>samples = 12<br/>value = [11, 1]<br/>class = not_affected>, fillcolor="#e58139e8"] ;
52 -> 88 ;
89 [label=<protein_V8 &le; 49.5<br/>gini = 0.5<br/>samples = 2<br/>value = [1, 1]<br/>class = not_affected>, fillcolor="#e5813900"] ;
88 -> 89 ;
90 [label=<gini = 0.0<br/>samples = 1<br/>value = [1, 0]<br/>class = not_affected>, fillcolor="#e58139ff"] ;
89 -> 90 ;
91 [label=<gini = 0.0<br/>samples = 1<br/>value = [0, 1]<br/>class = affected>, fillcolor="#399de5ff"] ;
89 -> 91 ;
92 [label=<gini = 0.0<br/>samples = 10<br/>value = [10, 0]<br/>class = not_affected>, fillcolor="#e58139ff"] ;
88 -> 92 ;
93 [label=<protein_V4 &le; 58.5<br/>gini = 0.311<br/>samples = 26<br/>value = [21, 5]<br/>class = not_affected>, fillcolor="#e58139c2"] ;
1 -> 93 ;
94 [label=<protein_BL &le; 41.0<br/>gini = 0.091<br/>samples = 21<br/>value = [20, 1]<br/>class = not_affected>, fillcolor="#e58139f2"] ;
93 -> 94 ;
95 [label=<gini = 0.0<br/>samples = 1<br/>value = [0, 1]<br/>class = affected>, fillcolor="#399de5ff"] ;
94 -> 95 ;
96 [label=<gini = 0.0<br/>samples = 20<br/>value = [20, 0]<br/>class = not_affected>, fillcolor="#e58139ff"] ;
94 -> 96 ;
97 [label=<age &le; 58.5<br/>gini = 0.32<br/>samples = 5<br/>value = [1, 4]<br/>class = affected>, fillcolor="#399de5bf"] ;
93 -> 97 ;
98 [label=<gini = 0.0<br/>samples = 1<br/>value = [1, 0]<br/>class = not_affected>, fillcolor="#e58139ff"] ;
97 -> 98 ;
99 [label=<gini = 0.0<br/>samples = 4<br/>value = [0, 4]<br/>class = affected>, fillcolor="#399de5ff"] ;
97 -> 99 ;
100 [label=<age &le; 69.5<br/>gini = 0.188<br/>samples = 19<br/>value = [2, 17]<br/>class = affected>, fillcolor="#399de5e1"] ;
0 -> 100 [labeldistance=2.5, labelangle=-45, headlabel="False"] ;
101 [label=<gini = 0.0<br/>samples = 15<br/>value = [0, 15]<br/>class = affected>, fillcolor="#399de5ff"] ;
100 -> 101 ;
102 [label=<protein_V4 &le; 49.0<br/>gini = 0.5<br/>samples = 4<br/>value = [2, 2]<br/>class = not_affected>, fillcolor="#e5813900"] ;
100 -> 102 ;
103 [label=<gini = 0.0<br/>samples = 1<br/>value = [0, 1]<br/>class = affected>, fillcolor="#399de5ff"] ;
102 -> 103 ;
104 [label=<protein_V4 &le; 74.0<br/>gini = 0.444<br/>samples = 3<br/>value = [2, 1]<br/>class = not_affected>, fillcolor="#e581397f"] ;
102 -> 104 ;
105 [label=<gini = 0.0<br/>samples = 2<br/>value = [2, 0]<br/>class = not_affected>, fillcolor="#e58139ff"] ;
104 -> 105 ;
106 [label=<gini = 0.0<br/>samples = 1<br/>value = [0, 1]<br/>class = affected>, fillcolor="#399de5ff"] ;
104 -> 106 ;
}
